<?xml version="1.0"?>
<opencv_storage>
<cascade>
  <stageType>BOOST</stageType>
  <featureType>HAAR</featureType>
  <height>24</height>
  <width>24</width>
  <stageParams>
    <boostType>GAB</boostType>
    <minHitRate>9.9500000476837158e-01</minHitRate>
    <maxFalseAlarm>5.0000000000000000e-01</maxFalseAlarm>
    <weightTrimRate>9.4999999999999996e-01</weightTrimRate>
    <maxDepth>1</maxDepth>
    <maxWeakCount>100</maxWeakCount></stageParams>
  <featureParams>
    <maxCatCount>0</maxCatCount>
    <featSize>1</featSize>
    <mode>BASIC</mode></featureParams>
  <stageNum>23</stageNum>
  <stages>
    <!-- stage 0 -->
    <_>
      <maxWeakCount>5</maxWeakCount>
      <stageThreshold>-9.1200417280197144e-01</stageThreshold>
      <weakClassifiers>
        <_>
          <internalNodes>
            0 -1 34 -2.5850120000541210e-03</internalNodes>
          <leafValues>
            6.5625000000000000e-01 -6.0169494152069092e-01</leafValues></_>
        <_>
          <internalNodes>
            0 -1 122 7.3594078421592712e-03</internalNodes>
          <leafValues>
            -5.0168192386627197e-01 7.1575766801834106e-01</leafValues></_>
        <_>
          <internalNodes>
            0 -1 116 7.4183819815516472e-03</internalNodes>
          <leafValues>
            -5.4177016019821167e-01 6.8671846389770508e-01</leafValues></_>
        <_>
          <internalNodes>
            0 -1 130 -1.6083199530839920e-02</internalNodes>
          <leafValues>
            -9.4709211587905884e-01 3.3694130182266235e-01</leafValues></_>
        <_>
          <internalNodes>
            0 -1 8 -4.0047913789749146e-01</internalNodes>
          <leafValues>
            4.5329380035400391e-01 -8.2123804092407227e-01</leafValues></_></weakClassifiers></_>
    <!-- stage 1 -->
    <_>
      <maxWeakCount>4</maxWeakCount>
      <stageThreshold>-4.9659675359725952e-01</stageThreshold>
      <weakClassifiers>
        <_>
          <internalNodes>
            0 -1 156 1.1746586300432682e-02</internalNodes>
          <leafValues>
            -5.4838711023330688e-01 6.9230771064758301e-01</leafValues></_>
        <_>
          <internalNodes>
            0 -1 71 7.2920243255794048e-03</internalNodes>
          <leafValues>
            -3.8624429702758789e-01 7.4448502063751221e-01</leafValues></_>
        <_>
          <internalNodes>
            0 -1 40 -9.1737210750579834e-03</internalNodes>
          <leafValues>
            -1. 2.7705588936805725e-01</leafValues></_>
        <_>
          <internalNodes>
            0 -1 105 -2.8892606496810913e-01</internalNodes>
          <leafValues>
            -9.6975058317184448e-01 2.1466647088527679e-01</leafValues></_></weakClassifiers></_>
    <!-- stage 2 -->
    <_>
      <maxWeakCount>8</maxWeakCount>
      <stageThreshold>-7.3767769336700439e-01</stageThreshold>
      <weakClassifiers>
        <_>
          <internalNodes>
            0 -1 59 -7.0606613159179688e-01</internalNodes>
          <leafValues>
            1.8644067645072937e-01 -6.7032968997955322e-01</leafValues></_>
        <_>
          <internalNodes>
            0 -1 79 -5.1317987963557243e-03</internalNodes>
          <leafValues>
            5.3260654211044312e-01 -3.5924214124679565e-01</leafValues></_>
        <_>
          <internalNodes>
            0 -1 58 -4.8468261957168579e-03</internalNodes>
          <leafValues>
            6.2418794631958008e-01 -2.5747290253639221e-01</leafValues></_>
        <_>
          <internalNodes>
            0 -1 135 9.8125487565994263e-03</internalNodes>
          <leafValues>
            -2.9336968064308167e-01 6.1898922920227051e-01</leafValues></_>
        <_>
          <internalNodes>
            0 -1 166 9.3362573534250259e-04</internalNodes>
          <leafValues>
            -2.6236268877983093e-01 6.3225585222244263e-01</leafValues></_>
        <_>
          <internalNodes>
            0 -1 65 -1.1164292693138123e-02</internalNodes>
          <leafValues>
            7.1188664436340332e-01 -2.1997694671154022e-01</leafValues></_>
        <_>
          <internalNodes>
            0 -1 111 3.2582860440015793e-03</internalNodes>
          <leafValues>
            -2.1379213035106659e-01 6.3898295164108276e-01</leafValues></_>
        <_>
          <internalNodes>
            0 -1 97 2.3698557633906603e-03</internalNodes>
          <leafValues>
            -1.9556750357151031e-01 6.8086451292037964e-01</leafValues></_></weakClassifiers></_>
    <!-- stage 3 -->
    <_>
      <maxWeakCount>7</maxWeakCount>
      <stageThreshold>-7.7428793907165527e-01</stageThreshold>
      <weakClassifiers>
        <_>
          <internalNodes>
            0 -1 16 1.1819329112768173e-02</internalNodes>
          <leafValues>
            -4.4202899932861328e-01 9.1666668653488159e-01</leafValues></_>
        <_>
          <internalNodes>
            0 -1 163 2.1216994151473045e-02</internalNodes>
          <leafValues>
            -2.2145433723926544e-01 6.6819375753402710e-01</leafValues></_>
        <_>
          <internalNodes>
            0 -1 9 -8.5873771458864212e-03</internalNodes>
          <leafValues>
            -8.0489724874496460e-01 1.9502754509449005e-01</leafValues></_>
        <_>
          <internalNodes>
            0 -1 101 -2.3679886013269424e-02</internalNodes>
          <leafValues>
            -9.6946191787719727e-01 1.4890062808990479e-01</leafValues></_>
        <_>
          <internalNodes>
            0 -1 120 -2.5392323732376099e-01</internalNodes>
          <leafValues>
            3.3944565057754517e-01 -5.8583784103393555e-01</leafValues></_>
        <_>
          <internalNodes>
            0 -1 0 -1.7735935747623444e-02</internalNodes>
          <leafValues>
            2.9424077272415161e-01 -4.5579105615615845e-01</leafValues></_>
        <_>
          <internalNodes>
            0 -1 38 -1.6248982399702072e-02</internalNodes>
          <leafValues>
            8.6305129528045654e-01 -1.6313572227954865e-01</leafValues></_></weakClassifiers></_>
    <!-- stage 4 -->
    <_>
      <maxWeakCount>10</maxWeakCount>
      <stageThreshold>-9.2062520980834961e-01</stageThreshold>
      <weakClassifiers>
        <_>
          <internalNodes>
            0 -1 42 -9.9203139543533325e-03</internalNodes>
          <leafValues>
            8.4615385532379150e-01 -4.4525548815727234e-01</leafValues></_>
        <_>
          <internalNodes>
            0 -1 22 -7.3743849061429501e-03</internalNodes>
          <leafValues>
            7.6689517498016357e-01 -2.5327056646347046e-01</leafValues></_>
        <_>
          <internalNodes>
            0 -1 171 8.1962725380435586e-04</internalNodes>
          <leafValues>
            -1.5665368735790253e-01 6.1968982219696045e-01</leafValues></_>
        <_>
          <internalNodes>
            0 -1 64 -1.1082051787525415e-03</internalNodes>
          <leafValues>
            6.0958105325698853e-01 -2.3667120933532715e-01</leafValues></_>
        <_>
          <internalNodes>
            0 -1 33 -4.9080803990364075e-02</internalNodes>
          <leafValues>
            -7.6286154985427856e-01 2.1645663678646088e-01</leafValues></_>
        <_>
          <internalNodes>
            0 -1 179 -5.4145045578479767e-03</internalNodes>
          <leafValues>
            3.3470278978347778e-01 -4.8229414224624634e-01</leafValues></_>
        <_>
          <internalNodes>
            0 -1 88 1.5213298611342907e-03</internalNodes>
          <leafValues>
            -2.1112154424190521e-01 7.9909896850585938e-01</leafValues></_>
        <_>
          <internalNodes>
            0 -1 147 -2.3063591215759516e-03</internalNodes>
          <leafValues>
            -4.4463926553726196e-01 3.5848832130432129e-01</leafValues></_>
        <_>
          <internalNodes>
            0 -1 126 -2.9106780420988798e-03</internalNodes>
          <leafValues>
            -2.4438907206058502e-01 6.8200677633285522e-01</leafValues></_>
        <_>
          <internalNodes>
            0 -1 159 -2.5618229992687702e-03</internalNodes>
          <leafValues>
            5.6086963415145874e-01 -2.9107794165611267e-01</leafValues></_></weakClassifiers></_>
    <!-- stage 5 -->
    <_>
      <maxWeakCount>6</maxWeakCount>
      <stageThreshold>-6.0522401332855225e-01</stageThreshold>
      <weakClassifiers>
        <_>
          <internalNodes>
            0 -1 175 5.8966809883713722e-03</internalNodes>
          <leafValues>
            -4.7328245639801025e-01 6.3157892227172852e-01</leafValues></_>
        <_>
          <internalNodes>
            0 -1 167 -9.5645047258585691e-04</internalNodes>
          <leafValues>
            3.9553517103195190e-01 -3.4639480710029602e-01</leafValues></_>
        <_>
          <internalNodes>
            0 -1 55 -1.2433511018753052e-01</internalNodes>
          <leafValues>
            -6.4868760108947754e-01 2.2894684970378876e-01</leafValues></_>
        <_>
          <internalNodes>
            0 -1 119 -6.8571488372981548e-04</internalNodes>
          <leafValues>
            4.7919872403144836e-01 -3.3142346143722534e-01</leafValues></_>
        <_>
          <internalNodes>
            0 -1 74 1.9495942397043109e-03</internalNodes>
          <leafValues>
            -1.5485170483589172e-01 8.5805064439773560e-01</leafValues></_>
        <_>
          <internalNodes>
            0 -1 84 -2.6551196351647377e-03</internalNodes>
          <leafValues>
            7.8835767507553101e-01 -2.0313613116741180e-01</leafValues></_></weakClassifiers></_>
    <!-- stage 6 -->
    <_>
      <maxWeakCount>6</maxWeakCount>
      <stageThreshold>-6.1615949869155884e-01</stageThreshold>
      <weakClassifiers>
        <_>
          <internalNodes>
            0 -1 19 -1.0545855388045311e-02</internalNodes>
          <leafValues>
            7.5999999046325684e-01 -4.3272727727890015e-01</leafValues></_>
        <_>
          <internalNodes>
            0 -1 78 2.5479916483163834e-02</internalNodes>
          <leafValues>
            -2.5689065456390381e-01 6.0723841190338135e-01</leafValues></_>
        <_>
          <internalNodes>
            0 -1 117 -6.8519346415996552e-02</internalNodes>
          <leafValues>
            -7.5909137725830078e-01 2.4093556404113770e-01</leafValues></_>
        <_>
          <internalNodes>
            0 -1 94 1.2747015804052353e-02</internalNodes>
          <leafValues>
            -2.0089259743690491e-01 8.4454548358917236e-01</leafValues></_>
        <_>
          <internalNodes>
            0 -1 29 -5.0730071961879730e-03</internalNodes>
          <leafValues>
            -3.6309403181076050e-01 3.5338634252548218e-01</leafValues></_>
        <_>
          <internalNodes>
            0 -1 83 4.8432333278469741e-04</internalNodes>
          <leafValues>
            -3.1997090578079224e-01 4.6956348419189453e-01</leafValues></_></weakClassifiers></_>
    <!-- stage 7 -->
    <_>
      <maxWeakCount>9</maxWeakCount>
      <stageThreshold>-1.0350245237350464e+00</stageThreshold>
      <weakClassifiers>
        <_>
          <internalNodes>
            0 -1 68 6.4650058746337891e-02</internalNodes>
          <leafValues>
            -4.2753621935844421e-01 7.5000000000000000e-01</leafValues></_>
        <_>
          <internalNodes>
            0 -1 70 -4.9546971917152405e-02</internalNodes>
          <leafValues>
            5.5823725461959839e-01 -2.6140451431274414e-01</leafValues></_>
        <_>
          <internalNodes>
            0 -1 53 1.1492315679788589e-03</internalNodes>
          <leafValues>
            3.1639662384986877e-01 -4.6420469880104065e-01</leafValues></_>
        <_>
          <internalNodes>
            0 -1 143 3.6128764040768147e-03</internalNodes>
          <leafValues>
            -3.3206382393836975e-01 4.7650948166847229e-01</leafValues></_>
        <_>
          <internalNodes>
            0 -1 162 -4.2731385678052902e-02</internalNodes>
          <leafValues>
            5.5333679914474487e-01 -2.2794432938098907e-01</leafValues></_>
        <_>
          <internalNodes>
            0 -1 124 -7.3047772049903870e-02</internalNodes>
          <leafValues>
            -2.7548089623451233e-01 4.4329151511192322e-01</leafValues></_>
        <_>
          <internalNodes>
            0 -1 146 9.1225147480145097e-04</internalNodes>
          <leafValues>
            -3.0128642916679382e-01 4.4931188225746155e-01</leafValues></_>
        <_>
          <internalNodes>
            0 -1 80 -2.7622625231742859e-02</internalNodes>
          <leafValues>
            8.3315610885620117e-01 -1.4720413088798523e-01</leafValues></_>
        <_>
          <internalNodes>
            0 -1 174 -1.4956940896809101e-02</internalNodes>
          <leafValues>
            6.2149918079376221e-01 -1.9395422935485840e-01</leafValues></_></weakClassifiers></_>
    <!-- stage 8 -->
    <_>
      <maxWeakCount>6</maxWeakCount>
      <stageThreshold>-4.5004650950431824e-01</stageThreshold>
      <weakClassifiers>
        <_>
          <internalNodes>
            0 -1 107 1.8091025948524475e-01</internalNodes>
          <leafValues>
            -4.7368422150611877e-01 7.6470589637756348e-01</leafValues></_>
        <_>
          <internalNodes>
            0 -1 121 -1.7038930673152208e-03</internalNodes>
          <leafValues>
            -9.7634404897689819e-01 1.5691904723644257e-01</leafValues></_>
        <_>
          <internalNodes>
            0 -1 52 -1.1114296503365040e-03</internalNodes>
          <leafValues>
            -8.0238777399063110e-01 1.6941767930984497e-01</leafValues></_>
        <_>
          <internalNodes>
            0 -1 4 -2.2552159428596497e-01</internalNodes>
          <leafValues>
            9.6002477407455444e-01 -2.0960254967212677e-01</leafValues></_>
        <_>
          <internalNodes>
            0 -1 13 2.9243649914860725e-02</internalNodes>
          <leafValues>
            -2.0775900781154633e-01 6.9871681928634644e-01</leafValues></_>
        <_>
          <internalNodes>
            0 -1 21 3.2310688402503729e-03</internalNodes>
          <leafValues>
            2.7373847365379333e-01 -7.9181325435638428e-01</leafValues></_></weakClassifiers></_>
    <!-- stage 9 -->
    <_>
      <maxWeakCount>12</maxWeakCount>
      <stageThreshold>-7.8403455018997192e-01</stageThreshold>
      <weakClassifiers>
        <_>
          <internalNodes>
            0 -1 170 -4.0079288184642792e-02</internalNodes>
          <leafValues>
            8.4615385532379150e-01 -4.4525548815727234e-01</leafValues></_>
        <_>
          <internalNodes>
            0 -1 127 -2.7775773778557777e-03</internalNodes>
          <leafValues>
            -1. 9.0998686850070953e-02</leafValues></_>
        <_>
          <internalNodes>
            0 -1 134 2.0559772383421659e-03</internalNodes>
          <leafValues>
            1.9017179310321808e-01 -8.0707299709320068e-01</leafValues></_>
        <_>
          <internalNodes>
            0 -1 14 -8.5972428321838379e-02</internalNodes>
          <leafValues>
            8.2480204105377197e-01 -2.1911585330963135e-01</leafValues></_>
        <_>
          <internalNodes>
            0 -1 178 -8.4880331996828318e-04</internalNodes>
          <leafValues>
            -7.4395596981048584e-01 2.4302379786968231e-01</leafValues></_>
        <_>
          <internalNodes>
            0 -1 15 3.0257282778620720e-03</internalNodes>
          <leafValues>
            -3.1784424185752869e-01 4.7884997725486755e-01</leafValues></_>
        <_>
          <internalNodes>
            0 -1 164 8.3740195259451866e-03</internalNodes>
          <leafValues>
            -1.8626327812671661e-01 7.6128143072128296e-01</leafValues></_>
        <_>
          <internalNodes>
            0 -1 61 -3.1447832006961107e-03</internalNodes>
          <leafValues>
            4.0025290846824646e-01 -3.7938129901885986e-01</leafValues></_>
        <_>
          <internalNodes>
            0 -1 100 -3.5976322833448648e-03</internalNodes>
          <leafValues>
            1.4277908205986023e-01 -9.4872856140136719e-01</leafValues></_>
        <_>
          <internalNodes>
            0 -1 36 -1.2503692414611578e-03</internalNodes>
          <leafValues>
            -6.4896154403686523e-01 1.6496881842613220e-01</leafValues></_>
        <_>
          <internalNodes>
            0 -1 98 2.0387151744216681e-03</internalNodes>
          <leafValues>
            1.7999161779880524e-01 -7.2917050123214722e-01</leafValues></_>
        <_>
          <internalNodes>
            0 -1 6 -8.1193894147872925e-02</internalNodes>
          <leafValues>
            7.8343278169631958e-01 -2.2155456244945526e-01</leafValues></_></weakClassifiers></_>
    <!-- stage 10 -->
    <_>
      <maxWeakCount>7</maxWeakCount>
      <stageThreshold>-8.3603888750076294e-01</stageThreshold>
      <weakClassifiers>
        <_>
          <internalNodes>
            0 -1 176 -1.0026695206761360e-02</internalNodes>
          <leafValues>
            5.6250000000000000e-01 -4.4029849767684937e-01</leafValues></_>
        <_>
          <internalNodes>
            0 -1 69 1.8669100478291512e-02</internalNodes>
          <leafValues>
            1.5119652450084686e-01 -8.7987834215164185e-01</leafValues></_>
        <_>
          <internalNodes>
            0 -1 20 -4.8062633723020554e-03</internalNodes>
          <leafValues>
            3.3364972472190857e-01 -3.5745877027511597e-01</leafValues></_>
        <_>
          <internalNodes>
            0 -1 12 -1.7064135521650314e-02</internalNodes>
          <leafValues>
            5.1405262947082520e-01 -2.4149967730045319e-01</leafValues></_>
        <_>
          <internalNodes>
            0 -1 139 -1.5053681563585997e-03</internalNodes>
          <leafValues>
            -5.9668081998825073e-01 2.6147910952568054e-01</leafValues></_>
        <_>
          <internalNodes>
            0 -1 109 -1.7604175955057144e-02</internalNodes>
          <leafValues>
            -5.2968156337738037e-01 2.1917152404785156e-01</leafValues></_>
        <_>
          <internalNodes>
            0 -1 113 1.5340473502874374e-02</internalNodes>
          <leafValues>
            -2.6157766580581665e-01 5.5198389291763306e-01</leafValues></_></weakClassifiers></_>
    <!-- stage 11 -->
    <_>
      <maxWeakCount>8</maxWeakCount>
      <stageThreshold>-8.7951040267944336e-01</stageThreshold>
      <weakClassifiers>
        <_>
          <internalNodes>
            0 -1 82 -2.5446075014770031e-03</internalNodes>
          <leafValues>
            5.7142859697341919e-01 -4.8062014579772949e-01</leafValues></_>
        <_>
          <internalNodes>
            0 -1 165 9.8849995993077755e-04</internalNodes>
          <leafValues>
            -2.1964606642723083e-01 6.2561672925949097e-01</leafValues></_>
        <_>
          <internalNodes>
            0 -1 149 -1.1528301984071732e-03</internalNodes>
          <leafValues>
            7.0239394903182983e-01 -1.9059072434902191e-01</leafValues></_>
        <_>
          <internalNodes>
            0 -1 155 4.3472362449392676e-04</internalNodes>
          <leafValues>
            -4.7138950228691101e-01 3.3568507432937622e-01</leafValues></_>
        <_>
          <internalNodes>
            0 -1 152 7.1278726682066917e-04</internalNodes>
          <leafValues>
            -2.4570541083812714e-01 5.6115841865539551e-01</leafValues></_>
        <_>
          <internalNodes>
            0 -1 96 -1.7269426025450230e-03</internalNodes>
          <leafValues>
            8.5667473077774048e-01 -1.4584876596927643e-01</leafValues></_>
        <_>
          <internalNodes>
            0 -1 142 -1.9391451030969620e-02</internalNodes>
          <leafValues>
            -7.3634213209152222e-01 2.0883610844612122e-01</leafValues></_>
        <_>
          <internalNodes>
            0 -1 136 1.7403268720954657e-03</internalNodes>
          <leafValues>
            -1.4140971004962921e-01 9.5427125692367554e-01</leafValues></_></weakClassifiers></_>
    <!-- stage 12 -->
    <_>
      <maxWeakCount>7</maxWeakCount>
      <stageThreshold>-1.0826638936996460e+00</stageThreshold>
      <weakClassifiers>
        <_>
          <internalNodes>
            0 -1 11 -1.7767593264579773e-01</internalNodes>
          <leafValues>
            -3.3333335071802139e-02 -7.8333336114883423e-01</leafValues></_>
        <_>
          <internalNodes>
            0 -1 41 -5.8963038027286530e-02</internalNodes>
          <leafValues>
            -9.3710023164749146e-01 4.6227905899286270e-02</leafValues></_>
        <_>
          <internalNodes>
            0 -1 132 -6.0285809449851513e-03</internalNodes>
          <leafValues>
            8.5904859006404877e-02 -1.</leafValues></_>
        <_>
          <internalNodes>
            0 -1 25 -9.2109981924295425e-03</internalNodes>
          <leafValues>
            6.7979311943054199e-01 -1.8057937920093536e-01</leafValues></_>
        <_>
          <internalNodes>
            0 -1 39 9.2452123761177063e-02</internalNodes>
          <leafValues>
            1.3577984273433685e-01 -9.2078018188476563e-01</leafValues></_>
        <_>
          <internalNodes>
            0 -1 66 -1.6511932015419006e-02</internalNodes>
          <leafValues>
            -8.3893620967864990e-01 1.1112459003925323e-01</leafValues></_>
        <_>
          <internalNodes>
            0 -1 150 -2.9100168030709028e-03</internalNodes>
          <leafValues>
            4.5139330625534058e-01 -2.9772755503654480e-01</leafValues></_></weakClassifiers></_>
    <!-- stage 13 -->
    <_>
      <maxWeakCount>6</maxWeakCount>
      <stageThreshold>-1.1045398712158203e+00</stageThreshold>
      <weakClassifiers>
        <_>
          <internalNodes>
            0 -1 23 -6.2374341487884521e-01</internalNodes>
          <leafValues>
            -7.4522292613983154e-01 1.1888112127780914e-01</leafValues></_>
        <_>
          <internalNodes>
            0 -1 57 3.3405562862753868e-04</internalNodes>
          <leafValues>
            -3.8740614056587219e-01 4.9833431839942932e-01</leafValues></_>
        <_>
          <internalNodes>
            0 -1 48 1.7294880002737045e-02</internalNodes>
          <leafValues>
            2.6029449701309204e-01 -8.0677229166030884e-01</leafValues></_>
        <_>
          <internalNodes>
            0 -1 140 2.9947706498205662e-03</internalNodes>
          <leafValues>
            -2.4970665574073792e-01 7.3026525974273682e-01</leafValues></_>
        <_>
          <internalNodes>
            0 -1 76 3.5390518605709076e-03</internalNodes>
          <leafValues>
            -2.1826840937137604e-01 7.2940576076507568e-01</leafValues></_>
        <_>
          <internalNodes>
            0 -1 17 -2.3788699507713318e-01</internalNodes>
          <leafValues>
            -9.7556895017623901e-01 2.3576977849006653e-01</leafValues></_></weakClassifiers></_>
    <!-- stage 14 -->
    <_>
      <maxWeakCount>7</maxWeakCount>
      <stageThreshold>-6.7686933279037476e-01</stageThreshold>
      <weakClassifiers>
        <_>
          <internalNodes>
            0 -1 141 2.4186912924051285e-02</internalNodes>
          <leafValues>
            9.4890512526035309e-02 -6.9325155019760132e-01</leafValues></_>
        <_>
          <internalNodes>
            0 -1 104 5.7660508900880814e-03</internalNodes>
          <leafValues>
            -3.1927058100700378e-01 5.9634697437286377e-01</leafValues></_>
        <_>
          <internalNodes>
            0 -1 81 4.4783307239413261e-03</internalNodes>
          <leafValues>
            -2.5726792216300964e-01 6.2506663799285889e-01</leafValues></_>
        <_>
          <internalNodes>
            0 -1 148 3.5702431341633201e-04</internalNodes>
          <leafValues>
            -3.2379129528999329e-01 5.7973551750183105e-01</leafValues></_>
        <_>
          <internalNodes>
            0 -1 137 1.6362035239581019e-04</internalNodes>
          <leafValues>
            -3.2667019963264465e-01 5.2008754014968872e-01</leafValues></_>
        <_>
          <internalNodes>
            0 -1 44 1.2294809566810727e-03</internalNodes>
          <leafValues>
            -2.3441533744335175e-01 7.1274292469024658e-01</leafValues></_>
        <_>
          <internalNodes>
            0 -1 125 -1.8984792986884713e-03</internalNodes>
          <leafValues>
            7.3272287845611572e-01 -2.1387135982513428e-01</leafValues></_></weakClassifiers></_>
    <!-- stage 15 -->
    <_>
      <maxWeakCount>7</maxWeakCount>
      <stageThreshold>-9.5708417892456055e-01</stageThreshold>
      <weakClassifiers>
        <_>
          <internalNodes>
            0 -1 60 -4.5810228586196899e-01</internalNodes>
          <leafValues>
            -5.3333336114883423e-01 4.6666666865348816e-01</leafValues></_>
        <_>
          <internalNodes>
            0 -1 103 -3.0733325984328985e-03</internalNodes>
          <leafValues>
            6.7674905061721802e-01 -2.0227548480033875e-01</leafValues></_>
        <_>
          <internalNodes>
            0 -1 90 -2.9926011338829994e-03</internalNodes>
          <leafValues>
            4.8260813951492310e-01 -2.7142724394798279e-01</leafValues></_>
        <_>
          <internalNodes>
            0 -1 75 -2.2310890257358551e-02</internalNodes>
          <leafValues>
            -3.6433979868888855e-01 3.3458623290061951e-01</leafValues></_>
        <_>
          <internalNodes>
            0 -1 129 6.3418559730052948e-03</internalNodes>
          <leafValues>
            -2.8869706392288208e-01 4.6766206622123718e-01</leafValues></_>
        <_>
          <internalNodes>
            0 -1 118 -7.9945259494706988e-04</internalNodes>
          <leafValues>
            5.2974337339401245e-01 -2.6497083902359009e-01</leafValues></_>
        <_>
          <internalNodes>
            0 -1 49 -3.5536386072635651e-02</internalNodes>
          <leafValues>
            -8.7515574693679810e-01 2.1392422914505005e-01</leafValues></_></weakClassifiers></_>
    <!-- stage 16 -->
    <_>
      <maxWeakCount>9</maxWeakCount>
      <stageThreshold>-8.4263312816619873e-01</stageThreshold>
      <weakClassifiers>
        <_>
          <internalNodes>
            0 -1 27 2.6684361696243286e-01</internalNodes>
          <leafValues>
            -4.2647057771682739e-01 5.7142859697341919e-01</leafValues></_>
        <_>
          <internalNodes>
            0 -1 43 -5.5653941817581654e-03</internalNodes>
          <leafValues>
            2.2170811891555786e-01 -4.2056468129158020e-01</leafValues></_>
        <_>
          <internalNodes>
            0 -1 54 -2.4441078305244446e-02</internalNodes>
          <leafValues>
            -5.9002763032913208e-01 2.2116120159626007e-01</leafValues></_>
        <_>
          <internalNodes>
            0 -1 77 7.4080340564250946e-03</internalNodes>
          <leafValues>
            1.4024969935417175e-01 -8.3929312229156494e-01</leafValues></_>
        <_>
          <internalNodes>
            0 -1 173 4.1958251968026161e-03</internalNodes>
          <leafValues>
            -1.7861844599246979e-01 8.5264080762863159e-01</leafValues></_>
        <_>
          <internalNodes>
            0 -1 35 -1.5909770736470819e-03</internalNodes>
          <leafValues>
            -6.3569718599319458e-01 1.9302420318126678e-01</leafValues></_>
        <_>
          <internalNodes>
            0 -1 32 -2.7048871852457523e-03</internalNodes>
          <leafValues>
            7.5045037269592285e-01 -1.3560216128826141e-01</leafValues></_>
        <_>
          <internalNodes>
            0 -1 115 -7.0730485022068024e-03</internalNodes>
          <leafValues>
            -5.4511028528213501e-01 2.1523322165012360e-01</leafValues></_>
        <_>
          <internalNodes>
            0 -1 144 -3.2204151153564453e-02</internalNodes>
          <leafValues>
            -2.6459705829620361e-01 4.2072060704231262e-01</leafValues></_></weakClassifiers></_>
    <!-- stage 17 -->
    <_>
      <maxWeakCount>11</maxWeakCount>
      <stageThreshold>-9.2884355783462524e-01</stageThreshold>
      <weakClassifiers>
        <_>
          <internalNodes>
            0 -1 18 -2.6524902787059546e-03</internalNodes>
          <leafValues>
            8.7500000000000000e-01 -4.0140846371650696e-01</leafValues></_>
        <_>
          <internalNodes>
            0 -1 56 -6.6346881794743240e-05</internalNodes>
          <leafValues>
            2.7150785923004150e-01 -3.9865916967391968e-01</leafValues></_>
        <_>
          <internalNodes>
            0 -1 108 -3.0241679400205612e-02</internalNodes>
          <leafValues>
            -7.5025200843811035e-01 1.4241275191307068e-01</leafValues></_>
        <_>
          <internalNodes>
            0 -1 51 -1.1070894077420235e-02</internalNodes>
          <leafValues>
            4.0475034713745117e-01 -2.4539637565612793e-01</leafValues></_>
        <_>
          <internalNodes>
            0 -1 30 -9.5558715984225273e-03</internalNodes>
          <leafValues>
            5.8261263370513916e-01 -1.6079042851924896e-01</leafValues></_>
        <_>
          <internalNodes>
            0 -1 63 -1.3001266121864319e-01</internalNodes>
          <leafValues>
            -5.1839375495910645e-01 2.2871284186840057e-01</leafValues></_>
        <_>
          <internalNodes>
            0 -1 93 7.7936711022630334e-04</internalNodes>
          <leafValues>
            -2.5045883655548096e-01 5.2831751108169556e-01</leafValues></_>
        <_>
          <internalNodes>
            0 -1 153 4.6704979613423347e-03</internalNodes>
          <leafValues>
            2.1067017316818237e-01 -7.3849081993103027e-01</leafValues></_>
        <_>
          <internalNodes>
            0 -1 102 -6.1951368115842342e-04</internalNodes>
          <leafValues>
            3.8718482851982117e-01 -3.3150142431259155e-01</leafValues></_>
        <_>
          <internalNodes>
            0 -1 145 -1.1648200452327728e-02</internalNodes>
          <leafValues>
            -7.1068847179412842e-01 1.8372321128845215e-01</leafValues></_>
        <_>
          <internalNodes>
            0 -1 86 8.7146309670060873e-04</internalNodes>
          <leafValues>
            -3.4133398532867432e-01 3.7284615635871887e-01</leafValues></_></weakClassifiers></_>
    <!-- stage 18 -->
    <_>
      <maxWeakCount>9</maxWeakCount>
      <stageThreshold>-8.2364529371261597e-01</stageThreshold>
      <weakClassifiers>
        <_>
          <internalNodes>
            0 -1 168 2.5924567133188248e-02</internalNodes>
          <leafValues>
            -4.2335766553878784e-01 6.1538463830947876e-01</leafValues></_>
        <_>
          <internalNodes>
            0 -1 50 2.9190960340201855e-03</internalNodes>
          <leafValues>
            -2.4860394001007080e-01 4.6862518787384033e-01</leafValues></_>
        <_>
          <internalNodes>
            0 -1 87 -1.6904132440686226e-02</internalNodes>
          <leafValues>
            -5.1854521036148071e-01 2.7882817387580872e-01</leafValues></_>
        <_>
          <internalNodes>
            0 -1 5 5.6520737707614899e-03</internalNodes>
          <leafValues>
            2.4365831911563873e-01 -4.9099969863891602e-01</leafValues></_>
        <_>
          <internalNodes>
            0 -1 47 -2.9562901705503464e-02</internalNodes>
          <leafValues>
            7.0130366086959839e-01 -1.5066362917423248e-01</leafValues></_>
        <_>
          <internalNodes>
            0 -1 3 1.8388595432043076e-02</internalNodes>
          <leafValues>
            -2.5971427559852600e-01 5.7616198062896729e-01</leafValues></_>
        <_>
          <internalNodes>
            0 -1 128 1.9107080996036530e-02</internalNodes>
          <leafValues>
            -2.0998197793960571e-01 5.7305967807769775e-01</leafValues></_>
        <_>
          <internalNodes>
            0 -1 31 2.8501371853053570e-03</internalNodes>
          <leafValues>
            3.9968189597129822e-01 -4.0226474404335022e-01</leafValues></_>
        <_>
          <internalNodes>
            0 -1 92 8.0088526010513306e-04</internalNodes>
          <leafValues>
            -2.6062461733818054e-01 4.2859870195388794e-01</leafValues></_></weakClassifiers></_>
    <!-- stage 19 -->
    <_>
      <maxWeakCount>9</maxWeakCount>
      <stageThreshold>-7.8244233131408691e-01</stageThreshold>
      <weakClassifiers>
        <_>
          <internalNodes>
            0 -1 72 7.0315157063305378e-03</internalNodes>
          <leafValues>
            -4.4696968793869019e-01 5.0000000000000000e-01</leafValues></_>
        <_>
          <internalNodes>
            0 -1 45 1.3560912571847439e-02</internalNodes>
          <leafValues>
            8.9683309197425842e-02 -8.5030812025070190e-01</leafValues></_>
        <_>
          <internalNodes>
            0 -1 24 1.0756773874163628e-02</internalNodes>
          <leafValues>
            -1.0068131238222122e-01 9.4485461711883545e-01</leafValues></_>
        <_>
          <internalNodes>
            0 -1 177 2.7881702408194542e-03</internalNodes>
          <leafValues>
            -1.5972876548767090e-01 5.2488774061203003e-01</leafValues></_>
        <_>
          <internalNodes>
            0 -1 85 2.1448626648634672e-03</internalNodes>
          <leafValues>
            -3.0790340900421143e-01 3.5809665918350220e-01</leafValues></_>
        <_>
          <internalNodes>
            0 -1 172 2.8753271326422691e-03</internalNodes>
          <leafValues>
            1.7465057969093323e-01 -6.9740372896194458e-01</leafValues></_>
        <_>
          <internalNodes>
            0 -1 67 -2.9323261231184006e-02</internalNodes>
          <leafValues>
            -6.5666228532791138e-01 1.5303030610084534e-01</leafValues></_>
        <_>
          <internalNodes>
            0 -1 154 2.1272782760206610e-05</internalNodes>
          <leafValues>
            -4.2095950245857239e-01 2.6299688220024109e-01</leafValues></_>
        <_>
          <internalNodes>
            0 -1 46 -8.4482785314321518e-03</internalNodes>
          <leafValues>
            5.1191985607147217e-01 -2.4146600067615509e-01</leafValues></_></weakClassifiers></_>
    <!-- stage 20 -->
    <_>
      <maxWeakCount>8</maxWeakCount>
      <stageThreshold>-7.0018810033798218e-01</stageThreshold>
      <weakClassifiers>
        <_>
          <internalNodes>
            0 -1 169 -8.0620031803846359e-03</internalNodes>
          <leafValues>
            6.1538463830947876e-01 -4.2335766553878784e-01</leafValues></_>
        <_>
          <internalNodes>
            0 -1 7 -5.5646523833274841e-03</internalNodes>
          <leafValues>
            7.0150953531265259e-01 -2.0178827643394470e-01</leafValues></_>
        <_>
          <internalNodes>
            0 -1 95 -1.8505359068512917e-02</internalNodes>
          <leafValues>
            -8.9337170124053955e-01 1.7156666517257690e-01</leafValues></_>
        <_>
          <internalNodes>
            0 -1 1 -5.8534074574708939e-02</internalNodes>
          <leafValues>
            5.8803951740264893e-01 -1.6740535199642181e-01</leafValues></_>
        <_>
          <internalNodes>
            0 -1 123 1.2418960686773062e-03</internalNodes>
          <leafValues>
            3.5080513358116150e-01 -3.3513027429580688e-01</leafValues></_>
        <_>
          <internalNodes>
            0 -1 114 5.3103095851838589e-03</internalNodes>
          <leafValues>
            -2.4770084023475647e-01 5.0983738899230957e-01</leafValues></_>
        <_>
          <internalNodes>
            0 -1 99 2.0044429693371058e-03</internalNodes>
          <leafValues>
            -2.7567142248153687e-01 3.8692533969879150e-01</leafValues></_>
        <_>
          <internalNodes>
            0 -1 91 -3.7573212757706642e-03</internalNodes>
          <leafValues>
            -6.3874250650405884e-01 1.7904451489448547e-01</leafValues></_></weakClassifiers></_>
    <!-- stage 21 -->
    <_>
      <maxWeakCount>10</maxWeakCount>
      <stageThreshold>-8.8936251401901245e-01</stageThreshold>
      <weakClassifiers>
        <_>
          <internalNodes>
            0 -1 10 -1.3345146551728249e-02</internalNodes>
          <leafValues>
            8.6666667461395264e-01 -3.9649122953414917e-01</leafValues></_>
        <_>
          <internalNodes>
            0 -1 89 -3.9093803614377975e-02</internalNodes>
          <leafValues>
            -7.2536832094192505e-01 1.0425436496734619e-01</leafValues></_>
        <_>
          <internalNodes>
            0 -1 106 -2.1030180505476892e-04</internalNodes>
          <leafValues>
            3.1156277656555176e-01 -2.6723957061767578e-01</leafValues></_>
        <_>
          <internalNodes>
            0 -1 62 -1.6339083015918732e-01</internalNodes>
          <leafValues>
            6.7850053310394287e-01 -1.1502809077501297e-01</leafValues></_>
        <_>
          <internalNodes>
            0 -1 110 7.3672896251082420e-03</internalNodes>
          <leafValues>
            1.1302433162927628e-01 -9.1443240642547607e-01</leafValues></_>
        <_>
          <internalNodes>
            0 -1 133 1.6031094128265977e-03</internalNodes>
          <leafValues>
            -3.0800461769104004e-01 3.0131030082702637e-01</leafValues></_>
        <_>
          <internalNodes>
            0 -1 160 -6.1229648999869823e-03</internalNodes>
          <leafValues>
            5.6964027881622314e-01 -1.6125994920730591e-01</leafValues></_>
        <_>
          <internalNodes>
            0 -1 73 -2.2511305287480354e-02</internalNodes>
          <leafValues>
            4.6378794312477112e-01 -2.1190914511680603e-01</leafValues></_>
        <_>
          <internalNodes>
            0 -1 158 2.0482533145695925e-03</internalNodes>
          <leafValues>
            2.1572117507457733e-01 -4.7418323159217834e-01</leafValues></_>
        <_>
          <internalNodes>
            0 -1 112 -6.4669936895370483e-02</internalNodes>
          <leafValues>
            -6.6441071033477783e-01 1.5177752077579498e-01</leafValues></_></weakClassifiers></_>
    <!-- stage 22 -->
    <_>
      <maxWeakCount>9</maxWeakCount>
      <stageThreshold>-9.3834024667739868e-01</stageThreshold>
      <weakClassifiers>
        <_>
          <internalNodes>
            0 -1 26 6.5876212902367115e-03</internalNodes>
          <leafValues>
            -4.6774193644523621e-01 3.0769231915473938e-01</leafValues></_>
        <_>
          <internalNodes>
            0 -1 28 4.1629709303379059e-03</internalNodes>
          <leafValues>
            -1.8281900882720947e-01 5.3547334671020508e-01</leafValues></_>
        <_>
          <internalNodes>
            0 -1 161 5.4809423163533211e-03</internalNodes>
          <leafValues>
            -2.2589257359504700e-01 3.7424400448799133e-01</leafValues></_>
        <_>
          <internalNodes>
            0 -1 131 -1.4330092817544937e-02</internalNodes>
          <leafValues>
            6.1885744333267212e-01 -1.3162554800510406e-01</leafValues></_>
        <_>
          <internalNodes>
            0 -1 37 -1.0185590945184231e-03</internalNodes>
          <leafValues>
            -6.2217533588409424e-01 1.8572431802749634e-01</leafValues></_>
        <_>
          <internalNodes>
            0 -1 138 -1.1109937913715839e-03</internalNodes>
          <leafValues>
            7.8449732065200806e-01 -1.3677076995372772e-01</leafValues></_>
        <_>
          <internalNodes>
            0 -1 151 -1.0809405939653516e-03</internalNodes>
          <leafValues>
            5.2293539047241211e-01 -1.8680885434150696e-01</leafValues></_>
        <_>
          <internalNodes>
            0 -1 157 -1.0611677134875208e-04</internalNodes>
          <leafValues>
            3.9513799548149109e-01 -2.6586127281188965e-01</leafValues></_>
        <_>
          <internalNodes>
            0 -1 2 -7.0842169225215912e-02</internalNodes>
          <leafValues>
            6.8355065584182739e-01 -1.8742023408412933e-01</leafValues></_></weakClassifiers></_></stages>
  <features>
    <_>
      <rects>
        <_>
          0 0 10 20 -1.</_>
        <_>
          0 0 5 10 2.</_>
        <_>
          5 10 5 10 2.</_></rects>
      <tilted>0</tilted></_>
    <_>
      <rects>
        <_>
          0 0 14 14 -1.</_>
        <_>
          0 0 7 7 2.</_>
        <_>
          7 7 7 7 2.</_></rects>
      <tilted>0</tilted></_>
    <_>
      <rects>
        <_>
          0 4 12 10 -1.</_>
        <_>
          6 4 6 10 2.</_></rects>
      <tilted>0</tilted></_>
    <_>
      <rects>
        <_>
          0 4 13 6 -1.</_>
        <_>
          0 7 13 3 2.</_></rects>
      <tilted>0</tilted></_>
    <_>
      <rects>
        <_>
          0 5 24 19 -1.</_>
        <_>
          12 5 12 19 2.</_></rects>
      <tilted>0</tilted></_>
    <_>
      <rects>
        <_>
          0 6 22 4 -1.</_>
        <_>
          0 6 11 2 2.</_>
        <_>
          11 8 11 2 2.</_></rects>
      <tilted>0</tilted></_>
    <_>
      <rects>
        <_>
          0 7 3 11 -1.</_>
        <_>
          1 7 1 11 2.</_></rects>
      <tilted>0</tilted></_>
    <_>
      <rects>
        <_>
          0 8 2 3 -1.</_>
        <_>
          1 8 1 3 2.</_></rects>
      <tilted>0</tilted></_>
    <_>
      <rects>
        <_>
          0 8 21 15 -1.</_>
        <_>
          7 8 7 15 2.</_></rects>
      <tilted>0</tilted></_>
    <_>
      <rects>
        <_>
          0 8 8 4 -1.</_>
        <_>
          0 10 8 2 2.</_></rects>
      <tilted>0</tilted></_>
    <_>
      <rects>
        <_>
          0 9 2 5 -1.</_>
        <_>
          1 9 1 5 2.</_></rects>
      <tilted>0</tilted></_>
    <_>
      <rects>
        <_>
          0 12 21 6 -1.</_>
        <_>
          0 14 21 2 2.</_></rects>
      <tilted>0</tilted></_>
    <_>
      <rects>
        <_>
          0 17 22 4 -1.</_>
        <_>
          0 19 22 2 2.</_></rects>
      <tilted>0</tilted></_>
    <_>
      <rects>
        <_>
          1 0 19 6 -1.</_>
        <_>
          1 3 19 3 2.</_></rects>
      <tilted>0</tilted></_>
    <_>
      <rects>
        <_>
          1 0 22 8 -1.</_>
        <_>
          1 4 22 4 2.</_></rects>
      <tilted>0</tilted></_>
    <_>
      <rects>
        <_>
          1 3 2 8 -1.</_>
        <_>
          1 3 1 4 2.</_>
        <_>
          2 7 1 4 2.</_></rects>
      <tilted>0</tilted></_>
    <_>
      <rects>
        <_>
          1 6 2 8 -1.</_>
        <_>
          2 6 1 8 2.</_></rects>
      <tilted>0</tilted></_>
    <_>
      <rects>
        <_>
          1 6 12 7 -1.</_>
        <_>
          5 6 4 7 2.</_></rects>
      <tilted>0</tilted></_>
    <_>
      <rects>
        <_>
          1 10 2 1 -1.</_>
        <_>
          2 10 1 1 2.</_></rects>
      <tilted>0</tilted></_>
    <_>
      <rects>
        <_>
          1 10 2 8 -1.</_>
        <_>
          1 10 1 4 2.</_>
        <_>
          2 14 1 4 2.</_></rects>
      <tilted>0</tilted></_>
    <_>
      <rects>
        <_>
          1 14 6 5 -1.</_>
        <_>
          4 14 3 5 2.</_></rects>
      <tilted>0</tilted></_>
    <_>
      <rects>
        <_>
          1 22 4 2 -1.</_>
        <_>
          1 22 2 1 2.</_>
        <_>
          3 23 2 1 2.</_></rects>
      <tilted>0</tilted></_>
    <_>
      <rects>
        <_>
          2 2 2 10 -1.</_>
        <_>
          2 2 1 5 2.</_>
        <_>
          3 7 1 5 2.</_></rects>
      <tilted>0</tilted></_>
    <_>
      <rects>
        <_>
          2 5 21 13 -1.</_>
        <_>
          9 5 7 13 2.</_></rects>
      <tilted>0</tilted></_>
    <_>
      <rects>
        <_>
          2 6 2 7 -1.</_>
        <_>
          3 6 1 7 2.</_></rects>
      <tilted>0</tilted></_>
    <_>
      <rects>
        <_>
          2 6 2 18 -1.</_>
        <_>
          3 6 1 18 2.</_></rects>
      <tilted>0</tilted></_>
    <_>
      <rects>
        <_>
          2 8 2 12 -1.</_>
        <_>
          2 8 1 6 2.</_>
        <_>
          3 14 1 6 2.</_></rects>
      <tilted>0</tilted></_>
    <_>
      <rects>
        <_>
          2 8 22 16 -1.</_>
        <_>
          13 8 11 16 2.</_></rects>
      <tilted>0</tilted></_>
    <_>
      <rects>
        <_>
          2 9 2 4 -1.</_>
        <_>
          3 9 1 4 2.</_></rects>
      <tilted>0</tilted></_>
    <_>
      <rects>
        <_>
          2 9 8 8 -1.</_>
        <_>
          2 9 4 4 2.</_>
        <_>
          6 13 4 4 2.</_></rects>
      <tilted>0</tilted></_>
    <_>
      <rects>
        <_>
          2 10 6 8 -1.</_>
        <_>
          2 10 3 4 2.</_>
        <_>
          5 14 3 4 2.</_></rects>
      <tilted>0</tilted></_>
    <_>
      <rects>
        <_>
          2 11 22 2 -1.</_>
        <_>
          2 11 11 1 2.</_>
        <_>
          13 12 11 1 2.</_></rects>
      <tilted>0</tilted></_>
    <_>
      <rects>
        <_>
          2 14 2 1 -1.</_>
        <_>
          3 14 1 1 2.</_></rects>
      <tilted>0</tilted></_>
    <_>
      <rects>
        <_>
          2 14 19 6 -1.</_>
        <_>
          2 17 19 3 2.</_></rects>
      <tilted>0</tilted></_>
    <_>
      <rects>
        <_>
          2 18 6 1 -1.</_>
        <_>
          5 18 3 1 2.</_></rects>
      <tilted>0</tilted></_>
    <_>
      <rects>
        <_>
          2 19 4 2 -1.</_>
        <_>
          2 19 2 1 2.</_>
        <_>
          4 20 2 1 2.</_></rects>
      <tilted>0</tilted></_>
    <_>
      <rects>
        <_>
          2 22 2 2 -1.</_>
        <_>
          2 22 1 1 2.</_>
        <_>
          3 23 1 1 2.</_></rects>
      <tilted>0</tilted></_>
    <_>
      <rects>
        <_>
          3 0 2 2 -1.</_>
        <_>
          4 0 1 2 2.</_></rects>
      <tilted>0</tilted></_>
    <_>
      <rects>
        <_>
          3 2 2 18 -1.</_>
        <_>
          4 2 1 18 2.</_></rects>
      <tilted>0</tilted></_>
    <_>
      <rects>
        <_>
          3 2 12 18 -1.</_>
        <_>
          3 2 6 9 2.</_>
        <_>
          9 11 6 9 2.</_></rects>
      <tilted>0</tilted></_>
    <_>
      <rects>
        <_>
          3 3 1 3 -1.</_>
        <_>
          3 4 1 1 2.</_></rects>
      <tilted>0</tilted></_>
    <_>
      <rects>
        <_>
          3 7 10 12 -1.</_>
        <_>
          3 7 5 6 2.</_>
        <_>
          8 13 5 6 2.</_></rects>
      <tilted>0</tilted></_>
    <_>
      <rects>
        <_>
          3 8 2 5 -1.</_>
        <_>
          4 8 1 5 2.</_></rects>
      <tilted>0</tilted></_>
    <_>
      <rects>
        <_>
          3 9 8 5 -1.</_>
        <_>
          7 9 4 5 2.</_></rects>
      <tilted>0</tilted></_>
    <_>
      <rects>
        <_>
          3 13 2 2 -1.</_>
        <_>
          3 13 1 1 2.</_>
        <_>
          4 14 1 1 2.</_></rects>
      <tilted>0</tilted></_>
    <_>
      <rects>
        <_>
          3 17 6 3 -1.</_>
        <_>
          6 17 3 3 2.</_></rects>
      <tilted>0</tilted></_>
    <_>
      <rects>
        <_>
          3 21 12 1 -1.</_>
        <_>
          9 21 6 1 2.</_></rects>
      <tilted>0</tilted></_>
    <_>
      <rects>
        <_>
          4 4 8 6 -1.</_>
        <_>
          4 7 8 3 2.</_></rects>
      <tilted>0</tilted></_>
    <_>
      <rects>
        <_>
          4 5 16 2 -1.</_>
        <_>
          12 5 8 2 2.</_></rects>
      <tilted>0</tilted></_>
    <_>
      <rects>
        <_>
          4 9 6 10 -1.</_>
        <_>
          7 9 3 10 2.</_></rects>
      <tilted>0</tilted></_>
    <_>
      <rects>
        <_>
          4 12 7 2 -1.</_>
        <_>
          4 13 7 1 2.</_></rects>
      <tilted>0</tilted></_>
    <_>
      <rects>
        <_>
          4 17 19 4 -1.</_>
        <_>
          4 19 19 2 2.</_></rects>
      <tilted>0</tilted></_>
    <_>
      <rects>
        <_>
          4 19 2 2 -1.</_>
        <_>
          4 19 1 1 2.</_>
        <_>
          5 20 1 1 2.</_></rects>
      <tilted>0</tilted></_>
    <_>
      <rects>
        <_>
          5 2 8 1 -1.</_>
        <_>
          9 2 4 1 2.</_></rects>
      <tilted>0</tilted></_>
    <_>
      <rects>
        <_>
          5 5 14 3 -1.</_>
        <_>
          12 5 7 3 2.</_></rects>
      <tilted>0</tilted></_>
    <_>
      <rects>
        <_>
          5 9 5 12 -1.</_>
        <_>
          5 13 5 4 2.</_></rects>
      <tilted>0</tilted></_>
    <_>
      <rects>
        <_>
          5 12 4 10 -1.</_>
        <_>
          7 12 2 10 2.</_></rects>
      <tilted>0</tilted></_>
    <_>
      <rects>
        <_>
          5 19 2 2 -1.</_>
        <_>
          5 19 1 1 2.</_>
        <_>
          6 20 1 1 2.</_></rects>
      <tilted>0</tilted></_>
    <_>
      <rects>
        <_>
          6 1 2 12 -1.</_>
        <_>
          6 1 1 6 2.</_>
        <_>
          7 7 1 6 2.</_></rects>
      <tilted>0</tilted></_>
    <_>
      <rects>
        <_>
          6 1 18 23 -1.</_>
        <_>
          12 1 6 23 2.</_></rects>
      <tilted>0</tilted></_>
    <_>
      <rects>
        <_>
          6 2 15 18 -1.</_>
        <_>
          11 2 5 18 2.</_></rects>
      <tilted>0</tilted></_>
    <_>
      <rects>
        <_>
          6 3 4 14 -1.</_>
        <_>
          6 10 4 7 2.</_></rects>
      <tilted>0</tilted></_>
    <_>
      <rects>
        <_>
          6 5 15 4 -1.</_>
        <_>
          11 5 5 4 2.</_></rects>
      <tilted>0</tilted></_>
    <_>
      <rects>
        <_>
          6 6 9 7 -1.</_>
        <_>
          9 6 3 7 2.</_></rects>
      <tilted>0</tilted></_>
    <_>
      <rects>
        <_>
          6 7 2 1 -1.</_>
        <_>
          7 7 1 1 2.</_></rects>
      <tilted>0</tilted></_>
    <_>
      <rects>
        <_>
          6 7 4 10 -1.</_>
        <_>
          6 7 2 5 2.</_>
        <_>
          8 12 2 5 2.</_></rects>
      <tilted>0</tilted></_>
    <_>
      <rects>
        <_>
          6 12 12 4 -1.</_>
        <_>
          6 12 6 2 2.</_>
        <_>
          12 14 6 2 2.</_></rects>
      <tilted>0</tilted></_>
    <_>
      <rects>
        <_>
          7 0 6 24 -1.</_>
        <_>
          7 0 3 12 2.</_>
        <_>
          10 12 3 12 2.</_></rects>
      <tilted>0</tilted></_>
    <_>
      <rects>
        <_>
          7 0 10 8 -1.</_>
        <_>
          7 4 10 4 2.</_></rects>
      <tilted>0</tilted></_>
    <_>
      <rects>
        <_>
          7 1 2 16 -1.</_>
        <_>
          7 9 2 8 2.</_></rects>
      <tilted>0</tilted></_>
    <_>
      <rects>
        <_>
          7 1 13 8 -1.</_>
        <_>
          7 5 13 4 2.</_></rects>
      <tilted>0</tilted></_>
    <_>
      <rects>
        <_>
          7 2 4 8 -1.</_>
        <_>
          7 2 2 4 2.</_>
        <_>
          9 6 2 4 2.</_></rects>
      <tilted>0</tilted></_>
    <_>
      <rects>
        <_>
          7 4 2 6 -1.</_>
        <_>
          7 4 1 3 2.</_>
        <_>
          8 7 1 3 2.</_></rects>
      <tilted>0</tilted></_>
    <_>
      <rects>
        <_>
          7 4 11 6 -1.</_>
        <_>
          7 7 11 3 2.</_></rects>
      <tilted>0</tilted></_>
    <_>
      <rects>
        <_>
          7 6 2 1 -1.</_>
        <_>
          8 6 1 1 2.</_></rects>
      <tilted>0</tilted></_>
    <_>
      <rects>
        <_>
          7 7 3 4 -1.</_>
        <_>
          8 7 1 4 2.</_></rects>
      <tilted>0</tilted></_>
    <_>
      <rects>
        <_>
          7 7 6 2 -1.</_>
        <_>
          7 7 3 1 2.</_>
        <_>
          10 8 3 1 2.</_></rects>
      <tilted>0</tilted></_>
    <_>
      <rects>
        <_>
          7 15 8 1 -1.</_>
        <_>
          11 15 4 1 2.</_></rects>
      <tilted>0</tilted></_>
    <_>
      <rects>
        <_>
          8 0 12 6 -1.</_>
        <_>
          8 3 12 3 2.</_></rects>
      <tilted>0</tilted></_>
    <_>
      <rects>
        <_>
          8 2 4 5 -1.</_>
        <_>
          10 2 2 5 2.</_></rects>
      <tilted>0</tilted></_>
    <_>
      <rects>
        <_>
          8 2 8 8 -1.</_>
        <_>
          8 2 4 4 2.</_>
        <_>
          12 6 4 4 2.</_></rects>
      <tilted>0</tilted></_>
    <_>
      <rects>
        <_>
          8 4 3 6 -1.</_>
        <_>
          8 7 3 3 2.</_></rects>
      <tilted>0</tilted></_>
    <_>
      <rects>
        <_>
          8 5 4 2 -1.</_>
        <_>
          8 5 2 1 2.</_>
        <_>
          10 6 2 1 2.</_></rects>
      <tilted>0</tilted></_>
    <_>
      <rects>
        <_>
          8 6 1 2 -1.</_>
        <_>
          8 7 1 1 2.</_></rects>
      <tilted>0</tilted></_>
    <_>
      <rects>
        <_>
          8 6 2 4 -1.</_>
        <_>
          8 6 1 2 2.</_>
        <_>
          9 8 1 2 2.</_></rects>
      <tilted>0</tilted></_>
    <_>
      <rects>
        <_>
          8 6 6 2 -1.</_>
        <_>
          8 6 3 1 2.</_>
        <_>
          11 7 3 1 2.</_></rects>
      <tilted>0</tilted></_>
    <_>
      <rects>
        <_>
          8 7 2 6 -1.</_>
        <_>
          9 7 1 6 2.</_></rects>
      <tilted>0</tilted></_>
    <_>
      <rects>
        <_>
          8 7 14 14 -1.</_>
        <_>
          8 7 7 7 2.</_>
        <_>
          15 14 7 7 2.</_></rects>
      <tilted>0</tilted></_>
    <_>
      <rects>
        <_>
          8 8 2 2 -1.</_>
        <_>
          8 8 1 1 2.</_>
        <_>
          9 9 1 1 2.</_></rects>
      <tilted>0</tilted></_>
    <_>
      <rects>
        <_>
          8 10 15 1 -1.</_>
        <_>
          13 10 5 1 2.</_></rects>
      <tilted>0</tilted></_>
    <_>
      <rects>
        <_>
          8 11 2 10 -1.</_>
        <_>
          8 11 1 5 2.</_>
        <_>
          9 16 1 5 2.</_></rects>
      <tilted>0</tilted></_>
    <_>
      <rects>
        <_>
          8 14 2 6 -1.</_>
        <_>
          8 14 1 3 2.</_>
        <_>
          9 17 1 3 2.</_></rects>
      <tilted>0</tilted></_>
    <_>
      <rects>
        <_>
          8 18 4 2 -1.</_>
        <_>
          8 18 2 1 2.</_>
        <_>
          10 19 2 1 2.</_></rects>
      <tilted>0</tilted></_>
    <_>
      <rects>
        <_>
          8 22 2 2 -1.</_>
        <_>
          8 22 1 1 2.</_>
        <_>
          9 23 1 1 2.</_></rects>
      <tilted>0</tilted></_>
    <_>
      <rects>
        <_>
          8 22 12 2 -1.</_>
        <_>
          8 23 12 1 2.</_></rects>
      <tilted>0</tilted></_>
    <_>
      <rects>
        <_>
          9 0 2 23 -1.</_>
        <_>
          10 0 1 23 2.</_></rects>
      <tilted>0</tilted></_>
    <_>
      <rects>
        <_>
          9 4 2 2 -1.</_>
        <_>
          9 4 1 1 2.</_>
        <_>
          10 5 1 1 2.</_></rects>
      <tilted>0</tilted></_>
    <_>
      <rects>
        <_>
          9 6 4 2 -1.</_>
        <_>
          9 6 2 1 2.</_>
        <_>
          11 7 2 1 2.</_></rects>
      <tilted>0</tilted></_>
    <_>
      <rects>
        <_>
          9 9 2 4 -1.</_>
        <_>
          9 9 1 2 2.</_>
        <_>
          10 11 1 2 2.</_></rects>
      <tilted>0</tilted></_>
    <_>
      <rects>
        <_>
          9 10 9 4 -1.</_>
        <_>
          9 12 9 2 2.</_></rects>
      <tilted>0</tilted></_>
    <_>
      <rects>
        <_>
          9 14 1 6 -1.</_>
        <_>
          9 16 1 2 2.</_></rects>
      <tilted>0</tilted></_>
    <_>
      <rects>
        <_>
          9 18 3 3 -1.</_>
        <_>
          10 18 1 3 2.</_></rects>
      <tilted>0</tilted></_>
    <_>
      <rects>
        <_>
          9 19 4 2 -1.</_>
        <_>
          9 19 2 1 2.</_>
        <_>
          11 20 2 1 2.</_></rects>
      <tilted>0</tilted></_>
    <_>
      <rects>
        <_>
          9 21 4 2 -1.</_>
        <_>
          9 22 4 1 2.</_></rects>
      <tilted>0</tilted></_>
    <_>
      <rects>
        <_>
          9 21 11 2 -1.</_>
        <_>
          9 22 11 1 2.</_></rects>
      <tilted>0</tilted></_>
    <_>
      <rects>
        <_>
          10 0 14 24 -1.</_>
        <_>
          10 12 14 12 2.</_></rects>
      <tilted>0</tilted></_>
    <_>
      <rects>
        <_>
          10 4 14 2 -1.</_>
        <_>
          10 4 7 1 2.</_>
        <_>
          17 5 7 1 2.</_></rects>
      <tilted>0</tilted></_>
    <_>
      <rects>
        <_>
          10 4 14 18 -1.</_>
        <_>
          17 4 7 18 2.</_></rects>
      <tilted>0</tilted></_>
    <_>
      <rects>
        <_>
          10 9 2 6 -1.</_>
        <_>
          10 11 2 2 2.</_></rects>
      <tilted>0</tilted></_>
    <_>
      <rects>
        <_>
          10 14 3 3 -1.</_>
        <_>
          10 15 3 1 2.</_></rects>
      <tilted>0</tilted></_>
    <_>
      <rects>
        <_>
          10 17 4 4 -1.</_>
        <_>
          10 17 2 2 2.</_>
        <_>
          12 19 2 2 2.</_></rects>
      <tilted>0</tilted></_>
    <_>
      <rects>
        <_>
          10 21 4 2 -1.</_>
        <_>
          10 22 4 1 2.</_></rects>
      <tilted>0</tilted></_>
    <_>
      <rects>
        <_>
          11 0 9 3 -1.</_>
        <_>
          14 0 3 3 2.</_></rects>
      <tilted>0</tilted></_>
    <_>
      <rects>
        <_>
          11 2 7 6 -1.</_>
        <_>
          11 5 7 3 2.</_></rects>
      <tilted>0</tilted></_>
    <_>
      <rects>
        <_>
          11 4 2 14 -1.</_>
        <_>
          11 4 1 7 2.</_>
        <_>
          12 11 1 7 2.</_></rects>
      <tilted>0</tilted></_>
    <_>
      <rects>
        <_>
          11 5 10 2 -1.</_>
        <_>
          16 5 5 2 2.</_></rects>
      <tilted>0</tilted></_>
    <_>
      <rects>
        <_>
          12 2 6 5 -1.</_>
        <_>
          15 2 3 5 2.</_></rects>
      <tilted>0</tilted></_>
    <_>
      <rects>
        <_>
          12 3 9 3 -1.</_>
        <_>
          15 3 3 3 2.</_></rects>
      <tilted>0</tilted></_>
    <_>
      <rects>
        <_>
          12 4 2 2 -1.</_>
        <_>
          12 4 1 1 2.</_>
        <_>
          13 5 1 1 2.</_></rects>
      <tilted>0</tilted></_>
    <_>
      <rects>
        <_>
          12 4 2 4 -1.</_>
        <_>
          12 4 1 2 2.</_>
        <_>
          13 6 1 2 2.</_></rects>
      <tilted>0</tilted></_>
    <_>
      <rects>
        <_>
          12 4 9 19 -1.</_>
        <_>
          15 4 3 19 2.</_></rects>
      <tilted>0</tilted></_>
    <_>
      <rects>
        <_>
          12 11 2 2 -1.</_>
        <_>
          12 11 1 1 2.</_>
        <_>
          13 12 1 1 2.</_></rects>
      <tilted>0</tilted></_>
    <_>
      <rects>
        <_>
          12 14 4 10 -1.</_>
        <_>
          14 14 2 10 2.</_></rects>
      <tilted>0</tilted></_>
    <_>
      <rects>
        <_>
          12 15 6 8 -1.</_>
        <_>
          12 15 3 4 2.</_>
        <_>
          15 19 3 4 2.</_></rects>
      <tilted>0</tilted></_>
    <_>
      <rects>
        <_>
          12 16 6 8 -1.</_>
        <_>
          14 16 2 8 2.</_></rects>
      <tilted>0</tilted></_>
    <_>
      <rects>
        <_>
          12 20 4 2 -1.</_>
        <_>
          12 20 2 1 2.</_>
        <_>
          14 21 2 1 2.</_></rects>
      <tilted>0</tilted></_>
    <_>
      <rects>
        <_>
          12 21 3 1 -1.</_>
        <_>
          13 21 1 1 2.</_></rects>
      <tilted>0</tilted></_>
    <_>
      <rects>
        <_>
          12 22 2 2 -1.</_>
        <_>
          13 22 1 2 2.</_></rects>
      <tilted>0</tilted></_>
    <_>
      <rects>
        <_>
          13 1 4 8 -1.</_>
        <_>
          13 5 4 4 2.</_></rects>
      <tilted>0</tilted></_>
    <_>
      <rects>
        <_>
          13 2 4 6 -1.</_>
        <_>
          13 5 4 3 2.</_></rects>
      <tilted>0</tilted></_>
    <_>
      <rects>
        <_>
          13 7 2 3 -1.</_>
        <_>
          13 8 2 1 2.</_></rects>
      <tilted>0</tilted></_>
    <_>
      <rects>
        <_>
          13 8 3 2 -1.</_>
        <_>
          14 8 1 2 2.</_></rects>
      <tilted>0</tilted></_>
    <_>
      <rects>
        <_>
          13 8 9 1 -1.</_>
        <_>
          16 8 3 1 2.</_></rects>
      <tilted>0</tilted></_>
    <_>
      <rects>
        <_>
          13 10 2 12 -1.</_>
        <_>
          13 10 1 6 2.</_>
        <_>
          14 16 1 6 2.</_></rects>
      <tilted>0</tilted></_>
    <_>
      <rects>
        <_>
          13 11 1 2 -1.</_>
        <_>
          13 12 1 1 2.</_></rects>
      <tilted>0</tilted></_>
    <_>
      <rects>
        <_>
          13 14 4 10 -1.</_>
        <_>
          15 14 2 10 2.</_></rects>
      <tilted>0</tilted></_>
    <_>
      <rects>
        <_>
          13 15 2 2 -1.</_>
        <_>
          13 15 1 1 2.</_>
        <_>
          14 16 1 1 2.</_></rects>
      <tilted>0</tilted></_>
    <_>
      <rects>
        <_>
          13 17 2 2 -1.</_>
        <_>
          13 17 1 1 2.</_>
        <_>
          14 18 1 1 2.</_></rects>
      <tilted>0</tilted></_>
    <_>
      <rects>
        <_>
          14 4 2 1 -1.</_>
        <_>
          15 4 1 1 2.</_></rects>
      <tilted>0</tilted></_>
    <_>
      <rects>
        <_>
          14 12 1 4 -1.</_>
        <_>
          14 14 1 2 2.</_></rects>
      <tilted>0</tilted></_>
    <_>
      <rects>
        <_>
          14 22 3 2 -1.</_>
        <_>
          14 23 3 1 2.</_></rects>
      <tilted>0</tilted></_>
    <_>
      <rects>
        <_>
          15 6 8 8 -1.</_>
        <_>
          19 6 4 8 2.</_></rects>
      <tilted>0</tilted></_>
    <_>
      <rects>
        <_>
          15 7 8 4 -1.</_>
        <_>
          19 7 4 4 2.</_></rects>
      <tilted>0</tilted></_>
    <_>
      <rects>
        <_>
          15 8 6 4 -1.</_>
        <_>
          15 8 3 2 2.</_>
        <_>
          18 10 3 2 2.</_></rects>
      <tilted>0</tilted></_>
    <_>
      <rects>
        <_>
          16 4 3 7 -1.</_>
        <_>
          17 4 1 7 2.</_></rects>
      <tilted>0</tilted></_>
    <_>
      <rects>
        <_>
          16 9 8 6 -1.</_>
        <_>
          16 12 8 3 2.</_></rects>
      <tilted>0</tilted></_>
    <_>
      <rects>
        <_>
          16 11 3 2 -1.</_>
        <_>
          16 12 3 1 2.</_></rects>
      <tilted>0</tilted></_>
    <_>
      <rects>
        <_>
          16 11 3 4 -1.</_>
        <_>
          16 13 3 2 2.</_></rects>
      <tilted>0</tilted></_>
    <_>
      <rects>
        <_>
          16 15 2 2 -1.</_>
        <_>
          16 15 1 1 2.</_>
        <_>
          17 16 1 1 2.</_></rects>
      <tilted>0</tilted></_>
    <_>
      <rects>
        <_>
          17 5 2 2 -1.</_>
        <_>
          17 5 1 1 2.</_>
        <_>
          18 6 1 1 2.</_></rects>
      <tilted>0</tilted></_>
    <_>
      <rects>
        <_>
          17 5 2 14 -1.</_>
        <_>
          17 12 2 7 2.</_></rects>
      <tilted>0</tilted></_>
    <_>
      <rects>
        <_>
          17 6 2 2 -1.</_>
        <_>
          17 6 1 1 2.</_>
        <_>
          18 7 1 1 2.</_></rects>
      <tilted>0</tilted></_>
    <_>
      <rects>
        <_>
          17 8 2 2 -1.</_>
        <_>
          17 8 1 1 2.</_>
        <_>
          18 9 1 1 2.</_></rects>
      <tilted>0</tilted></_>
    <_>
      <rects>
        <_>
          17 10 1 6 -1.</_>
        <_>
          17 13 1 3 2.</_></rects>
      <tilted>0</tilted></_>
    <_>
      <rects>
        <_>
          17 12 2 5 -1.</_>
        <_>
          18 12 1 5 2.</_></rects>
      <tilted>0</tilted></_>
    <_>
      <rects>
        <_>
          17 12 2 9 -1.</_>
        <_>
          18 12 1 9 2.</_></rects>
      <tilted>0</tilted></_>
    <_>
      <rects>
        <_>
          17 14 4 9 -1.</_>
        <_>
          19 14 2 9 2.</_></rects>
      <tilted>0</tilted></_>
    <_>
      <rects>
        <_>
          17 21 4 2 -1.</_>
        <_>
          17 22 4 1 2.</_></rects>
      <tilted>0</tilted></_>
    <_>
      <rects>
        <_>
          18 0 6 1 -1.</_>
        <_>
          21 0 3 1 2.</_></rects>
      <tilted>0</tilted></_>
    <_>
      <rects>
        <_>
          18 5 2 6 -1.</_>
        <_>
          18 5 1 3 2.</_>
        <_>
          19 8 1 3 2.</_></rects>
      <tilted>0</tilted></_>
    <_>
      <rects>
        <_>
          18 6 2 14 -1.</_>
        <_>
          19 6 1 14 2.</_></rects>
      <tilted>0</tilted></_>
    <_>
      <rects>
        <_>
          18 16 6 3 -1.</_>
        <_>
          21 16 3 3 2.</_></rects>
      <tilted>0</tilted></_>
    <_>
      <rects>
        <_>
          18 18 3 6 -1.</_>
        <_>
          18 20 3 2 2.</_></rects>
      <tilted>0</tilted></_>
    <_>
      <rects>
        <_>
          19 3 4 12 -1.</_>
        <_>
          21 3 2 12 2.</_></rects>
      <tilted>0</tilted></_>
    <_>
      <rects>
        <_>
          19 5 2 13 -1.</_>
        <_>
          20 5 1 13 2.</_></rects>
      <tilted>0</tilted></_>
    <_>
      <rects>
        <_>
          19 6 2 2 -1.</_>
        <_>
          19 6 1 1 2.</_>
        <_>
          20 7 1 1 2.</_></rects>
      <tilted>0</tilted></_>
    <_>
      <rects>
        <_>
          19 14 2 1 -1.</_>
        <_>
          20 14 1 1 2.</_></rects>
      <tilted>0</tilted></_>
    <_>
      <rects>
        <_>
          20 1 4 4 -1.</_>
        <_>
          22 1 2 4 2.</_></rects>
      <tilted>0</tilted></_>
    <_>
      <rects>
        <_>
          20 2 4 14 -1.</_>
        <_>
          20 2 2 7 2.</_>
        <_>
          22 9 2 7 2.</_></rects>
      <tilted>0</tilted></_>
    <_>
      <rects>
        <_>
          20 3 2 9 -1.</_>
        <_>
          21 3 1 9 2.</_></rects>
      <tilted>0</tilted></_>
    <_>
      <rects>
        <_>
          20 11 3 5 -1.</_>
        <_>
          21 11 1 5 2.</_></rects>
      <tilted>0</tilted></_>
    <_>
      <rects>
        <_>
          20 13 2 2 -1.</_>
        <_>
          20 13 1 1 2.</_>
        <_>
          21 14 1 1 2.</_></rects>
      <tilted>0</tilted></_>
    <_>
      <rects>
        <_>
          20 22 4 1 -1.</_>
        <_>
          22 22 2 1 2.</_></rects>
      <tilted>0</tilted></_>
    <_>
      <rects>
        <_>
          21 11 2 2 -1.</_>
        <_>
          22 11 1 2 2.</_></rects>
      <tilted>0</tilted></_>
    <_>
      <rects>
        <_>
          21 11 3 2 -1.</_>
        <_>
          22 11 1 2 2.</_></rects>
      <tilted>0</tilted></_>
    <_>
      <rects>
        <_>
          22 7 2 8 -1.</_>
        <_>
          22 7 1 4 2.</_>
        <_>
          23 11 1 4 2.</_></rects>
      <tilted>0</tilted></_>
    <_>
      <rects>
        <_>
          22 8 2 15 -1.</_>
        <_>
          23 8 1 15 2.</_></rects>
      <tilted>0</tilted></_>
    <_>
      <rects>
        <_>
          22 14 2 4 -1.</_>
        <_>
          23 14 1 4 2.</_></rects>
      <tilted>0</tilted></_>
    <_>
      <rects>
        <_>
          22 23 2 1 -1.</_>
        <_>
          23 23 1 1 2.</_></rects>
      <tilted>0</tilted></_>
    <_>
      <rects>
        <_>
          23 14 1 3 -1.</_>
        <_>
          23 15 1 1 2.</_></rects>
      <tilted>0</tilted></_></features></cascade>
</opencv_storage>
