<?xml version="1.0"?>
<opencv_storage>
<stage3>
  <maxWeakCount>7</maxWeakCount>
  <stageThreshold>-7.7428793907165527e-01</stageThreshold>
  <weakClassifiers>
    <_>
      <internalNodes>
        0 -1 18833 1.1819329112768173e-02</internalNodes>
      <leafValues>
        -4.4202899932861328e-01 9.1666668653488159e-01</leafValues></_>
    <_>
      <internalNodes>
        0 -1 155894 2.1216994151473045e-02</internalNodes>
      <leafValues>
        -2.2145433723926544e-01 6.6819375753402710e-01</leafValues></_>
    <_>
      <internalNodes>
        0 -1 7785 -8.5873771458864212e-03</internalNodes>
      <leafValues>
        -8.0489724874496460e-01 1.9502754509449005e-01</leafValues></_>
    <_>
      <internalNodes>
        0 -1 106287 -2.3679886013269424e-02</internalNodes>
      <leafValues>
        -9.6946191787719727e-01 1.4890062808990479e-01</leafValues></_>
    <_>
      <internalNodes>
        0 -1 123579 -2.5392323732376099e-01</internalNodes>
      <leafValues>
        3.3944565057754517e-01 -5.8583784103393555e-01</leafValues></_>
    <_>
      <internalNodes>
        0 -1 367 -1.7735935747623444e-02</internalNodes>
      <leafValues>
        2.9424077272415161e-01 -4.5579105615615845e-01</leafValues></_>
    <_>
      <internalNodes>
        0 -1 39870 -1.6248982399702072e-02</internalNodes>
      <leafValues>
        8.6305129528045654e-01 -1.6313572227954865e-01</leafValues></_></weakClassifiers></stage3>
</opencv_storage>
