<?xml version="1.0"?>
<opencv_storage>
<stage17>
  <maxWeakCount>11</maxWeakCount>
  <stageThreshold>-9.2884355783462524e-01</stageThreshold>
  <weakClassifiers>
    <_>
      <internalNodes>
        0 -1 21558 -2.6524902787059546e-03</internalNodes>
      <leafValues>
        8.7500000000000000e-01 -4.0140846371650696e-01</leafValues></_>
    <_>
      <internalNodes>
        0 -1 68194 -6.6346881794743240e-05</internalNodes>
      <leafValues>
        2.7150785923004150e-01 -3.9865916967391968e-01</leafValues></_>
    <_>
      <internalNodes>
        0 -1 111483 -3.0241679400205612e-02</internalNodes>
      <leafValues>
        -7.5025200843811035e-01 1.4241275191307068e-01</leafValues></_>
    <_>
      <internalNodes>
        0 -1 59722 -1.1070894077420235e-02</internalNodes>
      <leafValues>
        4.0475034713745117e-01 -2.4539637565612793e-01</leafValues></_>
    <_>
      <internalNodes>
        0 -1 33924 -9.5558715984225273e-03</internalNodes>
      <leafValues>
        5.8261263370513916e-01 -1.6079042851924896e-01</leafValues></_>
    <_>
      <internalNodes>
        0 -1 75242 -1.3001266121864319e-01</internalNodes>
      <leafValues>
        -5.1839375495910645e-01 2.2871284186840057e-01</leafValues></_>
    <_>
      <internalNodes>
        0 -1 98592 7.7936711022630334e-04</internalNodes>
      <leafValues>
        -2.5045883655548096e-01 5.2831751108169556e-01</leafValues></_>
    <_>
      <internalNodes>
        0 -1 150670 4.6704979613423347e-03</internalNodes>
      <leafValues>
        2.1067017316818237e-01 -7.3849081993103027e-01</leafValues></_>
    <_>
      <internalNodes>
        0 -1 106462 -6.1951368115842342e-04</internalNodes>
      <leafValues>
        3.8718482851982117e-01 -3.3150142431259155e-01</leafValues></_>
    <_>
      <internalNodes>
        0 -1 146834 -1.1648200452327728e-02</internalNodes>
      <leafValues>
        -7.1068847179412842e-01 1.8372321128845215e-01</leafValues></_>
    <_>
      <internalNodes>
        0 -1 94240 8.7146309670060873e-04</internalNodes>
      <leafValues>
        -3.4133398532867432e-01 3.7284615635871887e-01</leafValues></_></weakClassifiers></stage17>
</opencv_storage>
