<?xml version="1.0"?>
<opencv_storage>
<stage8>
  <maxWeakCount>6</maxWeakCount>
  <stageThreshold>-4.5004650950431824e-01</stageThreshold>
  <weakClassifiers>
    <_>
      <internalNodes>
        0 -1 109519 1.8091025948524475e-01</internalNodes>
      <leafValues>
        -4.7368422150611877e-01 7.6470589637756348e-01</leafValues></_>
    <_>
      <internalNodes>
        0 -1 126066 -1.7038930673152208e-03</internalNodes>
      <leafValues>
        -9.7634404897689819e-01 1.5691904723644257e-01</leafValues></_>
    <_>
      <internalNodes>
        0 -1 59960 -1.1114296503365040e-03</internalNodes>
      <leafValues>
        -8.0238777399063110e-01 1.6941767930984497e-01</leafValues></_>
    <_>
      <internalNodes>
        0 -1 5651 -2.2552159428596497e-01</internalNodes>
      <leafValues>
        9.6002477407455444e-01 -2.0960254967212677e-01</leafValues></_>
    <_>
      <internalNodes>
        0 -1 14320 2.9243649914860725e-02</internalNodes>
      <leafValues>
        -2.0775900781154633e-01 6.9871681928634644e-01</leafValues></_>
    <_>
      <internalNodes>
        0 -1 25725 3.2310688402503729e-03</internalNodes>
      <leafValues>
        2.7373847365379333e-01 -7.9181325435638428e-01</leafValues></_></weakClassifiers></stage8>
</opencv_storage>
