<?xml version="1.0"?>
<opencv_storage>
<stage14>
  <maxWeakCount>7</maxWeakCount>
  <stageThreshold>-6.7686933279037476e-01</stageThreshold>
  <weakClassifiers>
    <_>
      <internalNodes>
        0 -1 141534 2.4186912924051285e-02</internalNodes>
      <leafValues>
        9.4890512526035309e-02 -6.9325155019760132e-01</leafValues></_>
    <_>
      <internalNodes>
        0 -1 106732 5.7660508900880814e-03</internalNodes>
      <leafValues>
        -3.1927058100700378e-01 5.9634697437286377e-01</leafValues></_>
    <_>
      <internalNodes>
        0 -1 92657 4.4783307239413261e-03</internalNodes>
      <leafValues>
        -2.5726792216300964e-01 6.2506663799285889e-01</leafValues></_>
    <_>
      <internalNodes>
        0 -1 147698 3.5702431341633201e-04</internalNodes>
      <leafValues>
        -3.2379129528999329e-01 5.7973551750183105e-01</leafValues></_>
    <_>
      <internalNodes>
        0 -1 133267 1.6362035239581019e-04</internalNodes>
      <leafValues>
        -3.2667019963264465e-01 5.2008754014968872e-01</leafValues></_>
    <_>
      <internalNodes>
        0 -1 47050 1.2294809566810727e-03</internalNodes>
      <leafValues>
        -2.3441533744335175e-01 7.1274292469024658e-01</leafValues></_>
    <_>
      <internalNodes>
        0 -1 127861 -1.8984792986884713e-03</internalNodes>
      <leafValues>
        7.3272287845611572e-01 -2.1387135982513428e-01</leafValues></_></weakClassifiers></stage14>
</opencv_storage>
