<?xml version="1.0"?>
<opencv_storage>
<stage16>
  <maxWeakCount>9</maxWeakCount>
  <stageThreshold>-8.4263312816619873e-01</stageThreshold>
  <weakClassifiers>
    <_>
      <internalNodes>
        0 -1 33058 2.6684361696243286e-01</internalNodes>
      <leafValues>
        -4.2647057771682739e-01 5.7142859697341919e-01</leafValues></_>
    <_>
      <internalNodes>
        0 -1 45132 -5.5653941817581654e-03</internalNodes>
      <leafValues>
        2.2170811891555786e-01 -4.2056468129158020e-01</leafValues></_>
    <_>
      <internalNodes>
        0 -1 64643 -2.4441078305244446e-02</internalNodes>
      <leafValues>
        -5.9002763032913208e-01 2.2116120159626007e-01</leafValues></_>
    <_>
      <internalNodes>
        0 -1 88622 7.4080340564250946e-03</internalNodes>
      <leafValues>
        1.4024969935417175e-01 -8.3929312229156494e-01</leafValues></_>
    <_>
      <internalNodes>
        0 -1 160761 4.1958251968026161e-03</internalNodes>
      <leafValues>
        -1.7861844599246979e-01 8.5264080762863159e-01</leafValues></_>
    <_>
      <internalNodes>
        0 -1 37465 -1.5909770736470819e-03</internalNodes>
      <leafValues>
        -6.3569718599319458e-01 1.9302420318126678e-01</leafValues></_>
    <_>
      <internalNodes>
        0 -1 35835 -2.7048871852457523e-03</internalNodes>
      <leafValues>
        7.5045037269592285e-01 -1.3560216128826141e-01</leafValues></_>
    <_>
      <internalNodes>
        0 -1 117245 -7.0730485022068024e-03</internalNodes>
      <leafValues>
        -5.4511028528213501e-01 2.1523322165012360e-01</leafValues></_>
    <_>
      <internalNodes>
        0 -1 145368 -3.2204151153564453e-02</internalNodes>
      <leafValues>
        -2.6459705829620361e-01 4.2072060704231262e-01</leafValues></_></weakClassifiers></stage16>
</opencv_storage>
